svm_type modified_pinball_svc
kernel_type rbf
gamma 0.03125
nr_class 2
total_sv 96
rho 0.12477
label 1 -1
nr_sv 47 49
SV
16 1:1 2:-0.661654 3:-0.107143 5:-0.230769 6:-0.25 7:-0.789474 8:1 9:-1 10:-1 11:1 12:-1 13:-0.98 14:-1 
16 1:1 2:-0.927218 3:-0.997143 5:0.0769231 6:-0.25 7:-0.997193 8:-1 9:-1 10:-1 11:-1 13:-1 14:-1 
16 1:1 2:-0.283308 3:-1 5:0.0769231 6:-0.25 7:-1 8:-1 9:-1 10:-1 11:-1 12:1 13:-0.816 14:-1 
6.282746248492962 1:-1 3:-0.0714286 5:-0.692308 7:-0.637544 8:1 9:1 10:-0.731343 11:1 13:-1 14:-1 
16 1:1 2:-0.385865 3:-0.625 5:0.230769 6:-0.25 7:-0.994035 8:-1 9:-1 10:-1 11:1 13:-0.71 14:-0.99988 
2.000297839819675 1:1 2:0.0526316 3:-0.392857 5:0.0769231 6:0.75 7:-0.122807 8:1 9:1 10:-0.731343 11:-1 13:-0.819 14:-0.9669 
5.667777671265926 1:1 2:-0.781955 3:-0.785714 4:-1 5:-0.846154 6:-0.25 7:-0.92386 8:1 9:1 10:-0.761194 11:1 13:-0.84 14:-0.99998 
16 1:1 2:-0.716692 3:-1 5:0.0769231 6:-0.25 7:-1 8:-1 9:-1 10:-1 11:-1 12:1 13:-0.816 14:-1 
16 1:1 2:-0.836992 3:-1 4:-1 5:-0.0769231 7:-1 8:-1 9:-1 10:-1 11:1 12:-1 13:-0.5 14:-0.99998 
16 1:1 2:-0.87218 3:-0.988214 5:0.538462 6:0.5 7:-0.985263 8:-1 9:-1 10:-1 11:-1 13:-0.8 14:-0.9992 
0.868344462000288 1:-1 2:-0.706767 3:-0.357143 5:0.538462 6:-0.25 7:-0.403509 8:1 9:1 10:-0.850746 11:1 13:-0.88 14:-1 
16 1:1 2:-0.681805 3:-0.526786 4:-1 5:-0.846154 6:-0.25 7:-0.614035 8:1 9:-1 10:-1 11:1 12:-1 13:-0.9 14:-1 
10.70317919124839 1:-1 2:-0.526316 3:-0.967143 5:-0.538462 6:-0.25 7:-0.962105 8:1 9:1 10:-0.880597 11:-1 13:-0.62 14:-0.99 
16 1:1 2:-0.804511 3:-0.288571 5:0.384615 6:-0.75 7:-1 8:1 9:-1 10:-1 11:-1 13:-1 14:-1 
16 1:-1 2:-0.569023 3:0.0714286 4:-1 5:0.384615 6:1 7:-1 8:1 9:-1 10:-1 11:-1 13:-1 14:-0.73576 
16 1:1 2:-0.285714 3:-0.919643 4:-1 5:-0.846154 6:-0.25 7:-0.894737 8:-1 9:-1 10:-1 11:1 13:-0.569 14:-1 
7.18744692740719 1:1 2:-0.320902 3:-0.848214 4:-1 5:0.230769 6:-0.25 7:-0.994035 8:1 9:1 10:-0.970149 11:-1 13:-0.95 14:-0.97626 
16 1:1 2:-0.714286 3:-0.928571 5:0.0769231 6:-0.25 7:-0.941404 8:1 9:-1 10:-1 11:-1 12:-1 13:-0.7 14:-1 
8.123434320600609 1:1 2:-0.235489 3:-0.877857 5:1 6:-0.25 7:-0.991228 8:1 9:1 10:-0.850746 11:1 13:-0.52 14:-1 
8.906325571503224 1:1 2:-0.77203 3:-0.25 5:0.0769231 6:-0.25 7:-0.789474 8:1 9:-1 10:-1 11:1 13:-1 14:-1 
16 1:1 2:-0.756992 3:-0.982143 5:-0.846154 6:0.75 7:-0.953333 8:1 9:-1 10:-1 11:1 13:-1 14:-1 
-3.555577484959374 1:1 2:-0.310677 3:-0.684643 4:-1 5:-0.538462 6:-0.25 7:-0.982456 8:1 9:1 10:-0.701493 11:1 13:-0.68 14:-1 
2.293817550726549 1:1 2:-0.265564 3:-0.276786 5:1 6:-0.25 7:-0.824561 8:1 9:1 10:-0.820896 11:-1 13:-0.48 14:-0.99608 
16 1:1 2:-0.806917 3:-0.598214 5:0.230769 6:-0.25 7:-0.88 8:1 9:-1 10:-1 11:-1 12:-1 13:-0.88 14:-1 
16 1:-1 2:-0.709173 3:-0.943571 4:-1 5:0.538462 6:-0.25 7:-0.894737 8:1 9:1 10:-0.940299 11:1 13:-0.92 14:-0.992 
16 1:1 2:-0.35579 3:-0.678571 5:1 6:0.75 7:-0.596491 8:-1 9:-1 10:-1 11:1 12:-1 13:-0.289 14:-1 
16 1:-1 2:-0.644211 3:-1 5:0.0769231 6:-0.25 7:-1 8:-1 9:-1 10:-1 11:-1 12:1 13:-0.816 14:-1 
16 1:1 2:-0.443609 3:-0.988214 4:-1 5:0.0769231 6:0.75 7:-0.77193 8:1 9:1 10:-0.970149 11:1 13:-0.568 14:-0.84 
4.063894771409884 1:-1 2:-0.441203 3:-0.961429 5:0.846154 6:-0.25 7:-0.997193 8:1 9:-1 10:-1 11:-1 13:-0.56 14:-0.77646 
16 1:1 2:-0.308271 3:-0.991071 4:-1 5:0.0769231 6:-0.25 7:-0.894737 8:-1 9:-1 10:-1 11:1 13:-0.768 14:-0.99774 
5.283318642564353 1:-1 2:-0.721805 3:-0.160714 5:1 6:0.75 7:-0.964912 8:1 9:1 10:-0.940299 11:1 13:-0.7 14:-0.98898 
16 1:1 2:0.0475189 3:-0.535714 5:0.538462 6:0.75 7:-0.578947 8:1 9:-1 10:-1 11:1 13:-0.65 14:-1 
16 1:-1 2:-0.400902 3:-0.973214 5:0.846154 6:-0.25 7:-0.973684 8:-1 9:-1 10:-1 11:-1 13:-0.7 14:-0.99912 
16 1:-1 2:-0.869774 3:-0.973214 4:1 5:0.846154 6:-1 7:-0.298246 8:-1 9:-1 10:-1 11:1 12:-1 13:-0.7 14:-1 
16 1:-1 2:-0.799398 3:-0.464286 5:-0.538462 6:-0.25 7:-0.894737 8:1 9:1 10:-0.970149 11:-1 13:-0.84 14:-0.99532 
16 1:-1 2:-0.774436 3:-0.833214 5:-0.692308 7:-0.964912 8:1 9:1 10:-0.880597 11:-1 12:-1 13:-0.92 14:-1 
16 1:-1 2:-0.0803007 3:-1 5:0.0769231 6:-0.25 7:-0.824561 8:1 9:-1 10:-1 11:-1 13:-1 14:-1 
16 1:-1 2:-0.263158 3:-0.571429 5:-0.538462 6:-0.25 7:-0.929825 8:1 9:-1 10:-1 11:1 13:-1 14:-1 
6.806083130347345 1:1 2:-0.290827 3:-0.535714 5:-0.0769231 6:0.75 7:-0.701754 8:1 9:1 10:-0.641791 11:1 13:-0.907 14:-1 
10.86070318858604 1:1 2:-0.310677 3:-0.767857 5:0.538462 6:0.75 7:-0.368421 8:1 9:-1 10:-1 11:1 13:-0.898 14:-0.98722 
11.25988694085762 1:1 2:-0.836992 3:-0.321429 5:0.230769 6:-0.25 7:-0.894737 8:1 9:-1 10:-1 11:-1 13:-0.88 14:-0.95588 
1.738360120861179 1:-1 2:-0.180451 3:-0.854286 4:-1 5:0.538462 6:0.75 7:-0.991228 8:1 9:1 10:-0.313433 11:1 13:-0.545 14:-0.97528 
-3.601077117840105 1:1 2:-0.551278 3:-0.333214 5:0.538462 6:0.75 7:-0.602456 8:1 9:1 10:-0.820896 11:-1 13:-0.619 14:-0.99664 
6.193983226395413 1:1 2:0.220451 3:-0.517857 5:0.0769231 6:0.75 7:-0.815789 8:1 9:1 10:-0.671642 11:1 13:-1 14:-0.99432 
8.454683370499511 1:1 2:-0.41594 3:-0.773929 4:-1 5:1 6:-0.25 7:-0.777895 8:1 9:1 10:-0.910448 11:1 13:-0.62 14:-1 
16 1:1 2:-0.212932 3:-0.961429 4:-1 5:-0.230769 6:-0.25 7:-0.964912 8:1 9:1 10:-0.910448 11:-1 13:-0.8 14:-0.98 
16 1:1 2:-0.731729 3:-0.818571 4:-1 5:0.0769231 6:0.75 7:-0.818596 8:1 9:-1 10:-1 11:-1 13:-1 14:-1 
-16 1:1 2:-0.79188 3:-0.910714 4:-1 5:0.0769231 6:0.75 7:-0.903509 8:1 9:1 10:-0.910448 11:1 13:-0.86 14:-0.9958 
-2.588320805454537 1:-1 2:-0.799398 3:-0.25 4:-1 5:1 6:0.75 7:-1 8:-1 9:-1 10:-1 11:1 13:-0.846 14:-0.99936 
-5.916857294569371 1:-1 2:-0.526316 3:-0.857143 4:-1 5:0.384615 6:0.75 7:-0.859649 8:-1 9:-1 10:-1 11:-1 13:-0.744 14:-0.99966 
-2.356698044813748 1:-1 2:-0.290827 3:-0.821429 5:-0.692308 6:0.75 7:-0.985263 8:-1 9:-1 10:-1 11:-1 13:-0.74 14:-0.99508 
-16 1:1 2:-0.441203 3:-0.821429 5:0.0769231 6:-0.25 7:-0.912281 8:-1 9:-1 10:-1 11:1 13:-0.72 14:-1 
-16 1:1 2:-0.576541 3:-0.714286 4:-1 5:-0.692308 6:0.75 7:-0.596491 8:1 9:1 10:-0.940299 11:1 13:-0.925 14:-1 
1.468754734522387 1:-1 2:-0.260752 3:-0.684643 5:0.0769231 6:-0.25 7:-0.991228 8:-1 9:-1 10:-1 11:-1 13:-0.84 14:-1 
-16 1:1 2:-0.821955 3:-0.285714 4:-1 5:-0.538462 6:0.75 7:-0.941404 8:1 9:-1 10:-1 11:1 13:-0.86 14:-1 
-16 1:-1 2:-0.917293 3:-0.910714 5:0.538462 6:-0.25 7:-0.982456 8:-1 9:1 10:-0.970149 11:-1 13:-0.892 14:-0.99804 
-16 1:1 2:-0.0550377 3:-0.892857 5:0.0769231 6:-0.25 7:-0.824561 8:1 9:-1 10:-1 11:1 13:-0.86 14:-1 
3.693424570436972 1:1 2:0.0249625 3:-0.7025 5:1 7:-0.994035 8:-1 9:-1 10:-1 11:1 13:-0.48 14:-1 
-0.9827898578820572 1:1 2:-0.719398 3:-0.821429 5:-1 6:-1 7:-0.994035 8:-1 9:-1 10:-1 11:1 13:-0.9 14:-0.91584 
-16 1:-1 2:-0.581353 3:-0.892857 5:-0.0769231 6:-0.25 7:-0.859649 8:1 9:-1 10:-1 11:-1 12:-1 13:-0.632 14:-1 
-16 1:1 2:0.466165 3:-0.0892857 4:-1 5:0.0769231 6:0.75 7:-0.649123 8:1 9:-1 10:-1 11:-1 13:-0.888 14:-1 
-13.08864052552138 1:1 2:-0.491128 3:-0.821429 5:0.846154 6:0.75 7:-0.842105 8:-1 9:-1 10:-1 11:1 12:-1 13:-0.66 14:-1 
7.478188123329504 1:1 2:-0.894737 3:-0.785714 5:-0.538462 6:-0.25 7:-0.997193 8:-1 9:-1 10:-1 11:1 13:-0.84 14:-0.9992 
-16 1:-1 2:-0.553985 3:-0.747143 5:-0.692308 7:-0.964912 8:1 9:-1 10:-1 11:1 13:-0.829 14:-1 
-3.903058184281335 1:1 2:-0.390977 3:-0.607143 4:-1 5:0.0769231 6:-0.25 7:-0.894737 8:-1 9:-1 10:-1 11:1 13:-0.94 14:-1 
-16 1:1 2:-0.400902 3:-0.845357 5:0.0769231 6:-0.25 7:-0.894737 8:-1 9:-1 10:-1 11:-1 12:1 13:-0.88 14:-1 
-16 1:1 2:-0.182857 3:-0.839286 4:-1 5:1 6:0.75 7:-0.298246 8:1 9:-1 10:-1 11:1 13:-0.824 14:-1 
-4.262926257934419 1:1 2:-0.400902 3:-0.910714 5:0.230769 6:-0.25 7:-0.918246 8:-1 9:-1 10:-1 11:-1 13:-0.88 14:-1 
-1.564623744444228 1:-1 2:-0.836992 3:-0.613214 5:-0.692308 6:0.75 7:-0.979649 8:-1 9:-1 10:-1 11:-1 13:-0.92 14:-0.99032 
0.6696748643851272 1:1 2:-0.390977 3:-0.636786 4:-1 5:-0.692308 7:-0.92386 8:-1 9:-1 10:-1 11:1 13:-0.52 14:-1 
-16 1:1 2:-0.924812 3:-0.940357 5:-0.0769231 6:-0.25 7:-0.994035 8:1 9:-1 10:-1 11:-1 12:-1 13:-0.8 14:-1 
-12.3306394055064 1:1 2:-0.81203 3:-0.211071 5:0.0769231 6:-0.25 7:-0.859649 8:-1 9:-1 10:-1 11:1 13:-0.864 14:-1 
-16 1:-1 2:-0.824662 3:-0.9525 5:0.230769 6:-0.25 7:-0.883158 8:-1 9:-1 10:-1 11:-1 13:-0.78 14:-0.9999 
-16 1:1 2:-0.79188 3:-0.622143 5:0.538462 6:-0.25 7:-0.973684 8:1 9:1 10:-0.970149 11:-1 13:-0.84 14:-1 
-0.2321389912172146 1:-1 2:-0.93985 3:-0.973214 5:0.0769231 6:-0.25 7:-0.929825 8:-1 9:-1 10:-1 11:-1 13:-0.88 14:-0.99964 
-16 1:1 2:-0.46406 3:-0.964286 5:0.0769231 7:-0.941404 8:1 9:-1 10:-1 11:1 12:-1 13:-0.68 14:-1 
-16 1:1 2:-0.847218 3:-1 5:0.538462 6:-0.25 7:-0.953333 8:-1 9:-1 10:-1 11:-1 13:-0.84 14:-0.99998 
-16 1:1 2:-0.809624 3:-0.982143 5:0.538462 6:-0.25 7:-0.991228 8:-1 9:-1 10:-1 11:-1 13:-0.8 14:-1 
-3.15338603684015 1:1 2:-0.193083 3:-0.765 5:-0.0769231 6:-0.25 7:-0.754386 8:-1 9:-1 10:-1 11:1 12:-1 13:-0.6 14:-1 
-14.81598647108259 1:1 2:-0.378346 3:-0.904643 5:-0.692308 7:-0.991228 8:-1 9:-1 10:-1 11:1 13:-0.56 14:-0.91 
-16 1:1 2:-0.215639 3:-0.964286 5:-0.0769231 6:-0.25 7:-0.982456 8:1 9:-1 10:-1 11:-1 12:-1 13:-0.712 14:-1 
-16 1:-1 2:-0.661654 3:-0.214286 4:-1 5:-0.230769 6:-0.25 7:-0.684211 8:1 9:-1 10:-1 11:-1 13:-0.88 14:-1 
-16 1:-1 2:-0.556391 3:-0.928571 5:0.538462 6:-0.25 7:-0.929825 8:1 9:1 10:-0.940299 11:1 13:-0.833 14:-0.99 
-16 1:1 2:-0.278195 3:-0.5 5:0.538462 6:0.75 7:-0.192982 8:1 9:1 10:-0.791045 11:1 13:-0.7 14:-0.9999 
-11.97664794383875 1:1 2:-0.0827068 3:-0.214286 4:-1 5:-0.846154 6:-0.25 7:-0.894737 8:1 9:-1 10:-1 11:-1 12:-1 13:-1 14:-1 
-16 1:1 2:-0.721805 3:-0.955357 4:-1 5:-0.230769 6:-0.25 7:-0.991228 8:1 9:-1 10:-1 11:-1 13:-0.82 14:-0.99998 
-5.943319370088841 1:1 2:-0.694135 3:-0.958214 4:-1 5:0.846154 6:0.75 7:-0.991228 8:-1 9:-1 10:-1 11:-1 13:-0.76 14:-0.99998 
-16 1:1 2:-0.112782 3:0.800714 5:0.538462 6:0.75 7:-0.985263 8:1 9:1 10:-0.970149 11:-1 13:-0.24 14:-0.9982 
-16 1:1 2:-0.290827 3:-0.809643 5:0.846154 6:-0.25 7:-0.988421 8:-1 9:-1 10:-1 11:1 13:-1 14:-0.98998 
-16 1:1 2:-0.704361 3:-0.872143 5:0.0769231 6:-0.25 7:-0.962105 8:-1 9:-1 10:-1 11:1 13:-0.864 14:-0.99998 
-16 1:-1 2:-0.553985 3:-0.881071 5:0.538462 6:-0.25 7:-0.830526 8:1 9:-1 10:-1 11:1 13:-0.56 14:-1 
-16 1:-1 2:-0.676692 3:-0.925714 4:-1 5:-1 6:-1 7:-0.964912 8:1 9:1 10:-0.910448 11:-1 13:-0.82 14:-0.99706 
-5.395040914719426 1:1 2:-0.674286 3:-0.910714 5:0.0769231 6:-0.25 7:-0.982456 8:-1 9:-1 10:-1 11:-1 13:-0.89 14:-1 
-16 1:-1 2:-0.819549 3:-0.946429 5:0.0769231 6:-0.25 7:-0.944211 8:1 9:1 10:-0.850746 11:1 13:-0.86 14:-0.9999 
-16 1:-1 2:-0.66406 3:-0.910714 5:-1 6:-1 7:-1 8:1 9:-1 10:-1 11:-1 13:-0.92 14:-1 
-6.466000945262894 1:1 2:-0.776842 3:-1 5:0.0769231 6:-0.25 7:-0.964912 8:-1 9:-1 10:-1 11:1 12:-1 13:-1 14:-1 
